26 128
7299946 0.084025 -0.106970 0.031947 -0.061652 -0.077747 0.090621 -0.011338 0.039335 0.171279 -0.123049 -0.088426 0.239556 0.154406 -0.115184 -0.047050 0.019857 -0.168450 0.175983 -0.058195 -0.009017 -0.001946 0.162519 0.040335 -0.291155 0.180289 0.010564 0.049558 -0.019011 0.064719 0.054844 0.014848 0.118113 -0.113662 0.035929 -0.077209 -0.066448 -0.059007 0.034657 -0.039537 -0.026412 -0.078533 -0.166366 -0.163541 0.022633 -0.143108 0.175790 -0.077766 0.227673 -0.271968 -0.089141 -0.094956 -0.005349 0.190725 -0.030522 -0.000323 -0.142519 0.107186 0.019406 -0.142808 0.021347 0.024978 0.080742 -0.150711 0.174506 -0.060794 -0.140496 0.007865 -0.032202 0.002932 0.051619 0.030407 -0.023368 -0.133660 -0.207896 0.031302 0.046563 -0.009938 0.047318 0.142557 -0.142860 0.159129 0.105950 0.053443 -0.208256 0.239880 0.171304 0.041481 -0.097608 0.119944 -0.038542 -0.090339 -0.140292 0.046527 0.125795 0.098371 -0.125236 0.136187 -0.010887 0.026161 -0.049956 -0.139016 -0.118612 -0.037587 0.019966 0.045489 -0.010859 0.126768 -0.001895 -0.123341 -0.104819 -0.220582 0.180205 -0.071503 -0.026178 -0.166779 -0.136908 0.084524 -0.073936 0.015763 0.016312 -0.016216 -0.093775 -0.146860 -0.052240 0.019220 -0.176157 0.041455 -0.130270
7367539 0.065133 -0.092971 0.007745 -0.006175 -0.102388 0.093993 0.018028 0.046072 0.140781 -0.103693 -0.077696 0.244481 0.150661 -0.089208 -0.041444 0.040256 -0.110812 0.150146 -0.070897 -0.002981 0.014119 0.146457 0.011717 -0.305981 0.149895 0.026884 0.065847 -0.012074 0.069286 0.059920 -0.007360 0.098934 -0.064664 0.050049 -0.036226 -0.046577 -0.038069 0.020102 -0.036544 -0.037719 -0.070694 -0.147057 -0.140478 0.034989 -0.091793 0.152604 -0.096680 0.209469 -0.291396 -0.093714 -0.058824 -0.004674 0.196684 -0.032193 0.027361 -0.146300 0.084775 0.053872 -0.117393 0.039734 0.014473 0.048397 -0.126006 0.178256 -0.057877 -0.110905 0.007561 -0.059693 -0.037105 0.048299 0.007350 0.009593 -0.129283 -0.191530 0.041254 -0.002552 -0.014969 0.028682 0.149064 -0.125928 0.123235 0.091624 0.085377 -0.187590 0.270223 0.190395 0.060960 -0.096547 0.111116 -0.045784 -0.080288 -0.129941 0.041372 0.138074 0.048686 -0.107248 0.109696 -0.018998 0.018777 0.001113 -0.109266 -0.078962 0.001857 0.006280 0.051664 -0.005341 0.118121 -0.006816 -0.166233 -0.096023 -0.216180 0.171422 -0.059237 -0.029755 -0.183108 -0.141899 0.127531 -0.049569 0.072435 0.040027 -0.035088 -0.112573 -0.111720 -0.041952 0.033047 -0.145744 0.078099 -0.105093
9239224 0.096387 -0.093526 -0.013887 -0.011326 -0.142974 0.076825 -0.010132 0.044131 0.162584 -0.164848 -0.082113 0.251209 0.182087 -0.100115 -0.003572 0.018540 -0.111309 0.177471 -0.085470 0.018749 0.012301 0.150988 -0.033002 -0.307691 0.203542 0.015452 0.057281 -0.020611 0.102501 0.050553 -0.013566 0.085329 -0.119182 0.051205 -0.033811 -0.086546 -0.022814 0.022276 -0.015140 -0.046587 -0.103122 -0.141429 -0.186360 0.088635 -0.100907 0.153207 -0.051857 0.226251 -0.308070 -0.109048 -0.099184 -0.031298 0.215189 -0.000479 -0.052638 -0.142224 0.077951 0.009874 -0.098828 -0.025869 0.012209 0.137363 -0.129205 0.191520 -0.045516 -0.108556 0.016793 -0.047392 -0.019236 0.036785 -0.013977 -0.017957 -0.072192 -0.222740 0.067474 0.005885 -0.007537 0.080745 0.090030 -0.145519 0.157324 0.107414 0.072108 -0.245133 0.252655 0.179992 0.064242 -0.120037 0.127505 -0.025183 -0.042241 -0.078455 0.028480 0.083616 0.052742 -0.110314 0.095765 -0.071597 0.015635 0.012241 -0.091118 -0.143212 -0.040674 -0.043135 0.050004 -0.019954 0.109476 -0.001354 -0.174553 -0.110510 -0.218697 0.213754 -0.082328 -0.052937 -0.177016 -0.115423 0.082870 -0.031866 0.030360 0.015700 0.008722 -0.104376 -0.117905 -0.021420 0.038226 -0.129184 0.054253 -0.069552
7299943 0.093236 -0.075478 0.035375 -0.019353 -0.110165 0.110357 -0.024318 0.059550 0.152160 -0.079028 -0.086439 0.231282 0.157092 -0.071923 -0.052318 -0.009042 -0.142828 0.126533 -0.076041 0.014030 -0.003157 0.154643 0.025191 -0.313426 0.130901 0.018838 0.077917 -0.011523 0.061986 0.065960 0.002194 0.113171 -0.048278 0.051123 -0.040621 -0.034354 -0.047387 0.003373 -0.016987 -0.044441 -0.098183 -0.162318 -0.144706 0.047214 -0.076118 0.160226 -0.075841 0.194100 -0.292122 -0.104689 -0.062537 -0.001751 0.160972 -0.026727 -0.007936 -0.152314 0.093334 0.010985 -0.132500 0.038358 0.013257 0.030471 -0.097937 0.161610 -0.064302 -0.116450 -0.005875 -0.039390 -0.041703 0.066686 -0.001720 -0.034936 -0.135871 -0.196944 0.030962 0.016669 -0.003038 0.023847 0.150726 -0.093438 0.118147 0.086087 0.060848 -0.215740 0.251868 0.186083 0.050625 -0.096831 0.064093 -0.034676 -0.055700 -0.134113 0.076004 0.111314 0.065847 -0.111356 0.093552 0.002536 -0.035269 -0.002292 -0.127863 -0.093940 0.027252 -0.001714 0.020412 0.009999 0.152643 0.010392 -0.149057 -0.079140 -0.213743 0.169554 -0.091699 -0.044015 -0.153688 -0.132705 0.092936 -0.060521 0.069730 -0.002000 -0.018087 -0.109935 -0.154303 -0.029078 0.050656 -0.157872 0.103648 -0.152684
7367538 0.068795 -0.082535 0.011938 -0.014009 -0.108574 0.093031 -0.005227 0.057614 0.149560 -0.097809 -0.084542 0.221059 0.151159 -0.093310 -0.053409 0.023869 -0.125916 0.144850 -0.069608 0.004764 0.009150 0.160018 0.039920 -0.297446 0.159459 0.021053 0.045521 -0.012166 0.056895 0.056230 0.015405 0.100140 -0.079175 0.045853 -0.046274 -0.047922 -0.044574 0.018416 -0.014349 -0.040320 -0.094826 -0.140227 -0.144688 0.024114 -0.091748 0.141371 -0.081649 0.198933 -0.268494 -0.110047 -0.078438 -0.013251 0.186526 -0.022489 0.006426 -0.146198 0.100413 0.011093 -0.121314 0.036228 0.028559 0.060238 -0.103755 0.153302 -0.051754 -0.129251 0.013097 -0.033719 -0.020836 0.045630 0.003095 -0.015938 -0.122086 -0.195836 0.044600 -0.004476 -0.000867 0.014081 0.136782 -0.127595 0.134565 0.091188 0.058153 -0.197255 0.236825 0.169347 0.051383 -0.097400 0.081499 -0.058203 -0.070176 -0.131057 0.066117 0.113957 0.076811 -0.119119 0.117083 -0.023360 -0.014112 0.002901 -0.126797 -0.098238 -0.015195 -0.018589 0.038202 0.005361 0.118003 0.010073 -0.167586 -0.105066 -0.209826 0.156054 -0.079825 -0.044640 -0.151125 -0.135363 0.106522 -0.064498 0.051637 0.001555 -0.011586 -0.101688 -0.136667 -0.035517 0.029012 -0.160136 0.086798 -0.129214
9239218 0.104292 -0.072720 0.012610 0.019617 -0.154226 0.096091 -0.007507 0.057253 0.150084 -0.135108 -0.081266 0.229662 0.189938 -0.078519 -0.019606 -0.009750 -0.107219 0.141594 -0.090526 0.026889 0.007214 0.149089 -0.015378 -0.325201 0.158647 0.004077 0.075659 -0.015125 0.096016 0.062345 -0.015560 0.090324 -0.060142 0.052146 -0.020887 -0.055651 -0.012052 0.009049 0.003887 -0.056887 -0.122404 -0.137597 -0.161134 0.099912 -0.064375 0.152598 -0.062923 0.187535 -0.314570 -0.129053 -0.082067 -0.027613 0.186651 0.011113 -0.047942 -0.153044 0.078119 0.011962 -0.107472 -0.007200 0.008199 0.077808 -0.098604 0.170948 -0.051526 -0.098650 0.000496 -0.050568 -0.051974 0.043004 -0.030868 -0.026520 -0.084864 -0.218632 0.066537 -0.005411 0.010197 0.058424 0.103480 -0.111315 0.120509 0.094390 0.070822 -0.244242 0.263670 0.186460 0.064020 -0.123934 0.067884 -0.009940 -0.033008 -0.074080 0.059452 0.082773 0.044073 -0.110187 0.083552 -0.039637 -0.034766 0.045274 -0.097845 -0.115386 0.008434 -0.045108 0.035159 -0.006582 0.129130 0.009055 -0.174495 -0.088446 -0.213383 0.194816 -0.089173 -0.057963 -0.161625 -0.124658 0.083406 -0.033441 0.071210 0.001492 0.001023 -0.107430 -0.143376 -0.000075 0.051657 -0.114473 0.099253 -0.101557
7155652 0.102090 -0.080739 0.025900 0.012325 -0.104621 0.065434 -0.003144 0.035818 0.140808 -0.150775 -0.074083 0.224322 0.181067 -0.130394 -0.022465 0.001956 -0.105296 0.155307 -0.068644 0.000849 0.013464 0.133778 -0.013566 -0.289687 0.154118 0.009079 0.092251 0.011836 0.087364 0.072084 -0.025794 0.078578 -0.082935 0.049539 -0.044081 -0.084767 0.004069 0.029219 -0.009630 -0.059179 -0.123000 -0.142511 -0.171746 0.099528 -0.080453 0.146873 -0.060075 0.167489 -0.295268 -0.100368 -0.091979 -0.036604 0.173536 0.025576 -0.027617 -0.133911 0.099688 0.037038 -0.091502 -0.031458 0.011066 0.121570 -0.118586 0.178801 -0.059862 -0.092271 -0.009601 -0.024331 -0.037707 0.045541 -0.008443 0.006250 -0.064052 -0.197933 0.091781 0.006513 -0.008137 0.070677 0.101918 -0.117679 0.136858 0.084089 0.061133 -0.212198 0.252161 0.172458 0.063688 -0.103741 0.061799 0.004196 -0.059406 -0.046374 0.021440 0.075229 0.037510 -0.107510 0.072668 -0.055643 0.004441 0.036822 -0.082291 -0.115517 -0.014080 -0.022934 0.050412 -0.028916 0.100505 0.023121 -0.136832 -0.088927 -0.202095 0.170626 -0.056162 -0.056108 -0.156850 -0.110225 0.085002 -0.035919 0.035828 0.021366 -0.021263 -0.076570 -0.099872 0.003348 0.052706 -0.107436 0.033491 -0.073296
7155655 0.091677 -0.101889 0.008772 -0.033112 -0.118202 0.119893 0.024061 0.048053 0.170615 -0.146966 -0.090560 0.249201 0.176232 -0.089720 -0.033959 0.025492 -0.146395 0.166474 -0.062306 0.006154 0.007315 0.141078 0.004944 -0.326448 0.174802 0.007197 0.058587 -0.027901 0.077203 0.062817 -0.009217 0.117631 -0.076613 0.029432 -0.062041 -0.056827 -0.039925 0.019004 -0.028870 -0.036491 -0.086676 -0.141527 -0.155444 0.041937 -0.123302 0.179913 -0.085696 0.245790 -0.304105 -0.107550 -0.085016 0.000316 0.214177 -0.036259 -0.008318 -0.145483 0.086243 0.040788 -0.147356 0.040101 0.019382 0.059905 -0.137772 0.180796 -0.061921 -0.123335 0.029200 -0.067599 -0.019575 0.047605 -0.002443 -0.016843 -0.140421 -0.227797 0.045596 0.037961 -0.011892 0.051831 0.135087 -0.120650 0.138926 0.119025 0.091097 -0.220674 0.289192 0.192720 0.059426 -0.119353 0.121182 -0.017681 -0.069818 -0.127713 0.055521 0.135867 0.069774 -0.126082 0.118069 -0.025447 0.010173 -0.016245 -0.142630 -0.119660 -0.015662 0.001241 0.056749 -0.018921 0.134159 -0.006447 -0.168743 -0.104220 -0.236121 0.203960 -0.076077 -0.035987 -0.195120 -0.153524 0.101253 -0.048351 0.059618 0.039886 -0.010691 -0.117112 -0.154971 -0.046015 0.031723 -0.150989 0.077596 -0.119113
9239216 0.080784 -0.084464 0.042677 -0.049000 -0.081206 0.108378 -0.027507 0.053255 0.164144 -0.095754 -0.082024 0.235325 0.153873 -0.076921 -0.049164 -0.003053 -0.171636 0.150951 -0.074587 -0.013940 -0.014198 0.158979 0.039173 -0.301850 0.142580 0.012510 0.060551 -0.018193 0.058476 0.067019 0.015721 0.125475 -0.085829 0.039184 -0.073181 -0.038562 -0.066628 0.023207 -0.030045 -0.035084 -0.081103 -0.159147 -0.146791 0.041632 -0.124910 0.180347 -0.079054 0.209180 -0.260404 -0.113660 -0.065670 -0.000282 0.168852 -0.030222 -0.001289 -0.152110 0.091426 0.000992 -0.147350 0.028154 0.014474 0.039340 -0.119832 0.160192 -0.052391 -0.136913 -0.005374 -0.044764 -0.016088 0.056776 0.019918 -0.035270 -0.152934 -0.203107 0.016952 0.031199 -0.004728 0.037665 0.169357 -0.109521 0.137030 0.091965 0.051459 -0.210341 0.247534 0.162455 0.048891 -0.093576 0.085341 -0.042281 -0.075553 -0.133192 0.049189 0.127550 0.099915 -0.113998 0.105106 0.002732 -0.000806 -0.041856 -0.140637 -0.104654 -0.006321 0.004470 0.039777 0.003080 0.134317 -0.004893 -0.131848 -0.099319 -0.214746 0.176284 -0.091650 -0.017578 -0.154003 -0.143036 0.083902 -0.067449 0.043479 -0.000996 -0.006283 -0.095407 -0.158406 -0.054335 0.048272 -0.169579 0.069015 -0.145246
7155656 0.068203 -0.091240 -0.010520 -0.044943 -0.103557 0.116242 0.008717 0.058802 0.158978 -0.078486 -0.094163 0.247726 0.135061 -0.077749 -0.060518 0.050747 -0.134455 0.141377 -0.050278 0.009110 0.006318 0.153252 0.040964 -0.302721 0.172967 0.043545 0.036773 -0.018445 0.045705 0.047773 0.012711 0.118103 -0.073343 0.043546 -0.058067 -0.039588 -0.067577 0.005034 -0.033364 -0.029544 -0.070571 -0.148205 -0.146484 -0.023479 -0.103457 0.152652 -0.090871 0.254849 -0.282067 -0.088490 -0.080693 0.009808 0.203105 -0.070841 0.019694 -0.141750 0.110103 0.022239 -0.139084 0.081295 0.035908 0.044942 -0.117212 0.162114 -0.074283 -0.136201 0.046230 -0.035870 -0.011365 0.062849 0.002825 -0.019579 -0.159121 -0.195945 0.025932 0.023798 -0.019945 -0.007871 0.149720 -0.114157 0.143547 0.104945 0.081113 -0.193028 0.247306 0.186428 0.042847 -0.097124 0.119089 -0.076403 -0.066376 -0.185762 0.085705 0.139619 0.072524 -0.128250 0.123438 -0.024711 -0.017887 -0.039545 -0.154523 -0.100881 -0.010264 0.008850 0.024973 0.003868 0.146268 0.007082 -0.188656 -0.105325 -0.233755 0.169083 -0.089787 -0.042515 -0.176086 -0.143954 0.133715 -0.073033 0.060181 0.023911 -0.012164 -0.134970 -0.150218 -0.069730 0.027321 -0.190564 0.104262 -0.161687
9233819 -0.186507 0.169383 0.048025 0.118173 0.034274 -0.200170 -0.193097 0.300169 0.041823 0.068746 0.059404 0.092707 0.074841 0.024859 -0.102634 0.074999 0.015623 0.069637 -0.119316 -0.371101 -0.032606 0.154111 0.126492 -0.099249 0.011384 0.105853 0.141696 0.181730 -0.043335 0.236747 0.141704 0.074624 -0.166270 0.239436 -0.236119 0.021910 0.125111 0.176281 0.156188 -0.084517 -0.180321 0.102516 -0.055067 0.199327 -0.028003 -0.136720 -0.063434 -0.161364 -0.008496 -0.416053 -0.001112 -0.187647 0.060960 0.243832 0.070409 -0.210237 0.196082 -0.407386 0.076326 -0.241623 0.122356 0.131812 0.187425 0.087172 0.103416 -0.164605 -0.065234 0.187920 -0.017091 -0.074747 -0.088604 0.143572 -0.104957 0.013176 0.340743 -0.425198 -0.011242 -0.311938 0.324839 -0.131702 0.191931 -0.163023 -0.126423 -0.107502 0.078607 -0.248852 0.032489 0.133585 -0.379544 -0.251796 -0.143827 0.215303 -0.255362 0.001878 0.136658 -0.131051 -0.134054 -0.219893 -0.121815 0.215233 -0.125779 0.053482 -0.008543 -0.392334 0.144532 0.064451 -0.172247 0.072720 -0.409496 -0.188148 -0.126021 -0.095818 -0.160537 -0.076219 0.074943 -0.123771 0.206939 -0.101902 0.060916 -0.414071 0.078787 0.081559 0.032428 -0.083359 0.423575 -0.107539 -0.052303 -0.261241
9235267 -0.143048 0.177632 0.075277 0.121620 0.017421 -0.173051 -0.145886 0.298541 0.062222 0.000573 0.053924 0.074014 0.111692 0.019297 -0.080085 0.046718 -0.003041 0.074725 -0.097849 -0.373159 -0.035253 0.106093 0.093794 -0.115070 -0.008731 0.061836 0.176765 0.181814 -0.021445 0.262755 0.113068 0.091648 -0.118858 0.208122 -0.264855 0.014379 0.172264 0.175331 0.169922 -0.086945 -0.201737 0.124420 -0.043553 0.240192 -0.046664 -0.107943 -0.055220 -0.163762 -0.034614 -0.423446 -0.013907 -0.182578 0.051208 0.270702 0.041989 -0.195058 0.192467 -0.381021 0.058964 -0.254651 0.111001 0.118735 0.178841 0.083796 0.087522 -0.138617 -0.056838 0.163688 -0.025432 -0.069355 -0.118696 0.143966 -0.102434 -0.015909 0.377996 -0.373156 -0.000217 -0.270871 0.288114 -0.092008 0.168952 -0.130580 -0.105568 -0.123329 0.128264 -0.246593 0.034502 0.114388 -0.403683 -0.153052 -0.134189 0.279054 -0.257675 -0.015896 0.115260 -0.149842 -0.155853 -0.210936 -0.128530 0.234157 -0.148750 0.042296 0.012003 -0.389570 0.148842 0.039490 -0.160001 0.065756 -0.382205 -0.155106 -0.131842 -0.065940 -0.148162 -0.080188 0.055414 -0.132065 0.161999 -0.076788 0.079197 -0.390224 0.082844 0.095841 -0.005646 -0.053059 0.442225 -0.049227 -0.063511 -0.260133
9233266 -0.148918 0.164857 0.040965 0.124483 0.042096 -0.151803 -0.149612 0.303693 0.035480 0.042562 0.041917 0.066300 0.093458 0.019914 -0.137159 0.072190 0.017146 0.055375 -0.096623 -0.364507 -0.018252 0.091353 0.124606 -0.093178 -0.030528 0.093790 0.170171 0.186639 -0.065837 0.259868 0.117872 0.092409 -0.101071 0.206521 -0.273536 0.030800 0.165206 0.158759 0.176002 -0.107566 -0.197082 0.141310 -0.036253 0.195694 -0.028229 -0.143820 -0.058912 -0.163426 -0.017269 -0.416085 0.026186 -0.173892 0.060818 0.240255 0.075699 -0.161097 0.190145 -0.349456 0.047932 -0.199527 0.134250 0.098996 0.202241 0.080866 0.092771 -0.138602 -0.050055 0.160042 -0.011566 -0.059962 -0.101611 0.158210 -0.107470 0.003880 0.371733 -0.399476 -0.018497 -0.303766 0.316739 -0.073058 0.165339 -0.155049 -0.089983 -0.082483 0.106857 -0.238438 0.030952 0.134195 -0.397166 -0.199006 -0.145188 0.224403 -0.250546 -0.003152 0.114672 -0.148497 -0.164733 -0.211741 -0.115356 0.233619 -0.151799 0.051990 0.001201 -0.379282 0.165336 0.037749 -0.186185 0.080107 -0.396266 -0.177929 -0.133076 -0.123259 -0.128737 -0.091650 0.055418 -0.143791 0.204490 -0.066298 0.087529 -0.377090 0.077155 0.085914 0.003865 -0.077659 0.444624 -0.086372 -0.057157 -0.267709
9240088 -0.217615 0.159539 0.054193 0.085657 0.113177 -0.188528 -0.144901 0.305879 0.030972 0.143709 0.046254 0.085285 0.019780 0.020592 -0.186313 0.147078 0.002483 0.052398 -0.093610 -0.413187 0.001320 0.109684 0.200857 -0.076969 -0.043948 0.134433 0.172238 0.190027 -0.121647 0.277367 0.153943 0.125549 -0.096377 0.224340 -0.305585 0.059297 0.142675 0.174740 0.137639 -0.074957 -0.144727 0.117233 -0.006037 0.110532 -0.047103 -0.155863 -0.118004 -0.159473 0.006989 -0.399472 0.076760 -0.166147 0.053449 0.192524 0.185059 -0.198366 0.228480 -0.342878 0.051249 -0.149952 0.148496 0.052180 0.182722 0.063790 0.095070 -0.158513 -0.049619 0.171703 -0.007621 -0.050202 -0.057284 0.194968 -0.185754 0.055805 0.351370 -0.428715 -0.035873 -0.408632 0.398154 -0.095309 0.174329 -0.197194 -0.112647 -0.022834 0.097615 -0.247533 0.016526 0.178549 -0.399591 -0.274429 -0.218630 0.139734 -0.257475 0.058793 0.133840 -0.146600 -0.133131 -0.202629 -0.085811 0.190957 -0.170020 0.117560 0.007729 -0.340987 0.160118 0.067778 -0.187575 0.072571 -0.407927 -0.197812 -0.126226 -0.174260 -0.133860 -0.056095 0.073012 -0.176400 0.271555 -0.124019 0.098612 -0.384826 0.033101 0.086707 0.025610 -0.127036 0.450234 -0.155468 -0.061724 -0.329374
7225305 0.230258 -0.142380 0.235348 0.022320 0.062395 -0.138972 0.010049 -0.132488 0.179834 -0.318117 -0.092490 0.229051 0.214246 -0.490053 -0.002286 -0.078641 -0.183916 0.330000 -0.095091 -0.072392 0.078735 0.102490 -0.057955 -0.261787 0.135574 -0.055716 0.317584 0.109662 0.139976 0.191292 -0.108763 0.039079 -0.131911 0.031059 -0.088175 -0.315112 0.185769 0.120708 -0.091457 -0.091923 -0.201800 -0.317042 -0.276719 0.289630 -0.161460 0.210779 -0.040396 -0.019647 -0.388009 0.059019 -0.068075 -0.157493 0.083575 0.230086 0.035881 -0.121019 0.186383 0.244541 -0.011030 -0.267499 -0.067240 0.393241 -0.310219 0.266050 -0.091054 -0.000449 -0.215210 0.025953 -0.042383 0.102255 0.125467 0.128402 0.133627 -0.194137 0.222621 0.092244 -0.043568 0.300126 0.049053 -0.204622 0.208804 0.040215 -0.046278 -0.172258 0.302210 0.238286 0.113921 -0.061597 0.034806 0.253363 -0.255436 0.181052 -0.186620 -0.043359 -0.014736 -0.073170 0.050437 -0.081763 0.272074 0.103214 0.087247 -0.121760 -0.077681 0.101652 0.128778 -0.115369 0.000832 0.040282 0.212698 -0.027142 -0.090314 0.146281 0.117105 -0.036935 -0.133110 -0.061612 -0.048416 -0.013482 -0.136159 0.133736 -0.187630 0.172928 0.074855 0.201236 0.022700 -0.003653 -0.320727 0.161955
7659384 0.246631 -0.134157 0.220515 -0.015323 0.046599 -0.162347 -0.054045 -0.110909 0.196469 -0.337985 -0.110866 0.203012 0.211047 -0.455453 -0.003783 -0.108206 -0.213300 0.341873 -0.114784 -0.070901 0.073066 0.097152 -0.071231 -0.227095 0.153112 -0.070018 0.314859 0.090544 0.138476 0.195041 -0.085492 0.071444 -0.163074 0.029083 -0.116430 -0.313581 0.203740 0.109878 -0.046741 -0.102313 -0.212397 -0.290576 -0.284113 0.331182 -0.189859 0.193463 0.012826 -0.027284 -0.363530 0.017381 -0.062583 -0.188588 0.066846 0.265329 -0.037499 -0.095388 0.172572 0.168611 -0.010667 -0.320202 -0.049827 0.427460 -0.287261 0.267829 -0.065083 -0.008218 -0.224507 0.033574 -0.007765 0.091445 0.109935 0.076029 0.157216 -0.212075 0.226416 0.096640 -0.038678 0.314671 0.018499 -0.202022 0.232148 0.015353 -0.092471 -0.215859 0.244674 0.184414 0.084645 -0.067087 0.017992 0.264961 -0.230979 0.205281 -0.207844 -0.110771 0.022192 -0.088889 0.037526 -0.110639 0.273558 0.105971 0.069833 -0.158290 -0.112746 0.047269 0.131049 -0.119096 -0.015334 0.037135 0.217600 -0.032687 -0.064527 0.154660 0.077000 -0.056239 -0.091428 -0.045045 -0.109711 0.012062 -0.178416 0.060738 -0.125516 0.191692 0.038960 0.193145 0.061920 -0.023162 -0.337346 0.139416
7659385 -0.022731 0.034489 0.139201 0.149136 0.230166 -0.270909 0.093201 0.097483 0.004483 0.291055 -0.169497 0.118924 -0.168998 -0.380292 -0.432781 0.270715 0.026131 0.055424 -0.025166 -0.213679 0.266550 -0.060914 0.258100 -0.153339 -0.145219 0.234800 0.533801 0.287162 -0.269622 0.426403 -0.035616 0.205466 0.349526 0.156805 -0.216196 -0.086994 0.427075 -0.008901 0.030309 -0.153462 -0.198543 -0.157616 0.003543 -0.071386 0.123401 -0.209920 -0.226445 -0.263517 -0.363839 0.001234 0.300963 -0.204642 -0.052307 0.137286 0.522558 -0.141486 0.444181 0.275586 0.095166 0.130438 0.152463 0.042976 0.035936 0.110879 -0.161784 0.098390 -0.118386 0.180172 -0.150558 0.213121 0.008717 0.361639 -0.142884 0.136715 0.434591 -0.285987 -0.182661 -0.490559 0.345412 0.024307 0.090388 -0.304658 -0.095380 0.183474 0.248029 0.171501 -0.016483 0.197913 -0.411889 -0.026676 -0.451578 -0.118844 -0.091706 -0.016099 -0.166298 -0.177367 -0.096834 -0.191153 0.034832 0.393449 -0.086902 0.301265 0.185501 0.035056 0.052059 0.022528 -0.046249 0.227446 -0.162817 -0.045054 -0.023817 -0.363106 0.067475 -0.193932 0.065600 -0.218592 0.424129 -0.126110 0.198558 -0.023792 -0.353498 0.153524 0.135290 0.126529 0.340832 -0.234798 -0.065748 -0.333609
9239226 0.086959 0.028932 0.139596 0.230914 0.110788 -0.210636 0.091661 0.086751 -0.007015 0.258763 -0.208790 0.112289 -0.101001 -0.393228 -0.421992 0.192126 0.053481 -0.005269 -0.043142 -0.086322 0.268197 -0.100330 0.197986 -0.206266 -0.159118 0.207539 0.582748 0.264549 -0.232142 0.403301 -0.092050 0.186913 0.447279 0.137538 -0.144927 -0.084271 0.478833 -0.083588 0.091122 -0.217526 -0.275129 -0.172060 -0.022822 0.001498 0.223562 -0.201543 -0.192246 -0.300421 -0.470791 0.019648 0.265019 -0.208413 -0.075752 0.185521 0.423954 -0.137195 0.427801 0.329189 0.112435 0.121404 0.147922 0.028731 0.049810 0.093191 -0.194935 0.169831 -0.139269 0.139186 -0.223871 0.242737 -0.036694 0.311685 -0.071846 0.090192 0.458541 -0.268975 -0.152261 -0.407693 0.244246 0.086377 0.027407 -0.283963 -0.049844 0.111828 0.284010 0.261272 -0.005071 0.138747 -0.460774 0.049395 -0.363256 -0.096186 0.006953 -0.091386 -0.238958 -0.182172 -0.115954 -0.170388 -0.080396 0.488423 -0.047008 0.246751 0.246523 0.033356 -0.008844 -0.000594 0.034575 0.275881 -0.159206 0.012120 -0.017855 -0.308258 0.075653 -0.273236 0.048449 -0.182330 0.381346 -0.079168 0.246393 0.011296 -0.352706 0.110402 0.099381 0.237203 0.333993 -0.167739 0.033738 -0.306116
7885223 0.057481 0.043992 0.125400 0.214163 0.106640 -0.202680 0.067259 0.105773 0.010098 0.240221 -0.179413 0.094255 -0.087753 -0.340981 -0.387299 0.170984 0.040071 -0.000305 -0.050567 -0.114279 0.236892 -0.054346 0.196658 -0.199955 -0.134019 0.191405 0.518301 0.253381 -0.217725 0.376339 -0.052692 0.165957 0.377838 0.140940 -0.145449 -0.074018 0.417929 -0.056742 0.089311 -0.195903 -0.271425 -0.144416 -0.015426 0.001376 0.192788 -0.188620 -0.177901 -0.277698 -0.404747 -0.028912 0.236924 -0.202597 -0.055481 0.174330 0.382559 -0.146620 0.398785 0.243242 0.083368 0.110657 0.147548 0.032680 0.073887 0.082458 -0.159729 0.113758 -0.118970 0.156800 -0.188078 0.201260 -0.046859 0.278106 -0.080230 0.074503 0.428737 -0.273491 -0.136975 -0.408662 0.259048 0.061615 0.049464 -0.269473 -0.067233 0.095335 0.252443 0.201373 0.001049 0.127708 -0.448930 0.017121 -0.342752 -0.083345 -0.001550 -0.069600 -0.181455 -0.168925 -0.107454 -0.165175 -0.093834 0.455103 -0.064082 0.228600 0.208486 -0.011095 0.011876 0.011167 0.010280 0.249515 -0.181768 -0.016219 -0.029394 -0.301685 0.035790 -0.240566 0.057260 -0.183781 0.353935 -0.094008 0.223617 -0.043709 -0.299581 0.112611 0.079624 0.198537 0.320122 -0.169493 0.034151 -0.308118
1393504 0.192180 -0.113430 0.189420 0.023428 0.053280 -0.171832 -0.005967 -0.099221 0.157968 -0.246537 -0.097376 0.183919 0.161688 -0.425166 -0.027342 -0.048200 -0.150269 0.291979 -0.098558 -0.071932 0.096605 0.079691 -0.045496 -0.217929 0.119775 -0.031687 0.303770 0.100795 0.094283 0.188743 -0.080990 0.049814 -0.096217 0.043339 -0.078756 -0.274587 0.203108 0.090904 -0.058427 -0.088883 -0.183141 -0.269673 -0.234851 0.252606 -0.124929 0.139435 -0.028218 -0.042465 -0.351870 0.034226 -0.022272 -0.169389 0.069928 0.222410 0.043276 -0.103584 0.179742 0.195415 0.015390 -0.240751 -0.037006 0.361862 -0.248459 0.239886 -0.077060 0.007556 -0.190710 0.034018 -0.034052 0.095076 0.092990 0.117187 0.124962 -0.154091 0.223327 0.041660 -0.047829 0.214561 0.038953 -0.177461 0.197033 -0.009641 -0.066060 -0.145183 0.243758 0.192297 0.090433 -0.040904 0.000287 0.207150 -0.242150 0.155767 -0.179263 -0.070877 -0.021512 -0.078216 0.034146 -0.109405 0.242223 0.134779 0.075617 -0.087593 -0.065851 0.056261 0.117456 -0.090600 -0.021794 0.040677 0.157159 -0.022086 -0.051548 0.095309 0.083785 -0.058985 -0.086819 -0.061265 -0.031934 -0.006555 -0.121037 0.076545 -0.163325 0.163721 0.079701 0.184661 0.050104 -0.024514 -0.279384 0.116780
9239098 -0.000705 0.025030 0.131380 0.130242 0.190485 -0.228736 0.032996 0.089655 0.015441 0.229998 -0.138325 0.124762 -0.111551 -0.335357 -0.356872 0.194226 -0.000663 0.053370 -0.046736 -0.184332 0.206113 -0.030345 0.210351 -0.139764 -0.111823 0.187247 0.455198 0.248469 -0.208794 0.361147 -0.030214 0.157753 0.250618 0.143648 -0.195021 -0.077487 0.347704 0.007352 0.030520 -0.138898 -0.191818 -0.152095 -0.030510 -0.020874 0.088980 -0.157828 -0.184010 -0.229456 -0.315362 -0.007805 0.229578 -0.186472 -0.049198 0.138292 0.408932 -0.138929 0.377124 0.207221 0.090707 0.066269 0.121676 0.065975 0.017055 0.101572 -0.121431 0.074030 -0.129640 0.155643 -0.119717 0.177239 0.027568 0.293630 -0.105249 0.095507 0.373695 -0.240875 -0.138803 -0.370783 0.305031 0.007167 0.086859 -0.252446 -0.082340 0.124288 0.214838 0.140170 -0.001652 0.168368 -0.347947 -0.030404 -0.377017 -0.078392 -0.087888 -0.020584 -0.125079 -0.138669 -0.083888 -0.152806 0.027043 0.325332 -0.054222 0.217278 0.145314 0.018007 0.040582 0.017169 -0.034130 0.193823 -0.121985 -0.048614 -0.031693 -0.284057 0.059336 -0.159716 0.050339 -0.175427 0.337157 -0.110798 0.147224 -0.038086 -0.285472 0.133557 0.114353 0.120624 0.304743 -0.199637 -0.076500 -0.262113
9239097 0.165300 -0.099341 0.210595 0.030472 0.149351 -0.258965 0.127558 -0.121346 0.162713 -0.180105 -0.136104 0.163607 0.079319 -0.535187 -0.106655 0.058578 -0.143028 0.341277 -0.055047 -0.141598 0.202122 0.046775 0.031079 -0.223774 0.065035 0.004774 0.375974 0.151614 0.001032 0.267121 -0.082331 0.082795 0.018056 0.039743 -0.110858 -0.309484 0.305391 0.090442 -0.099321 -0.063018 -0.158951 -0.288242 -0.173239 0.125306 -0.132778 0.090044 -0.124354 -0.061779 -0.387267 0.117794 0.079342 -0.197869 0.066013 0.201786 0.257226 -0.085764 0.284313 0.340969 0.042753 -0.140720 -0.026321 0.356206 -0.284763 0.230522 -0.129066 0.024557 -0.195122 0.043520 -0.032294 0.141189 0.122710 0.236210 0.090774 -0.102496 0.274686 0.034253 -0.089768 0.090980 0.092319 -0.185416 0.203318 -0.046286 -0.072021 0.001920 0.289159 0.228989 0.103816 0.010940 -0.019683 0.228349 -0.397324 0.107322 -0.197781 -0.044620 -0.076737 -0.113261 0.070081 -0.139881 0.349589 0.192086 0.051962 0.037199 -0.032744 0.126842 0.155096 -0.081764 -0.063906 0.039570 0.176609 0.016603 0.003485 -0.022982 0.156853 -0.056533 -0.082602 -0.120401 0.060762 -0.018979 -0.104198 0.163813 -0.275507 0.226213 0.147692 0.199553 0.038250 -0.075510 -0.326239 0.088207
5612159 0.174695 -0.118059 0.257430 -0.016269 0.190143 -0.253964 0.108023 -0.140458 0.180455 -0.192515 -0.128719 0.153053 0.078725 -0.531937 -0.085377 0.029655 -0.194703 0.353788 -0.043810 -0.159137 0.166213 0.039923 0.032818 -0.205578 0.070326 -0.012743 0.366652 0.134903 -0.003845 0.252581 -0.068847 0.088306 -0.015797 0.022438 -0.138304 -0.309469 0.266625 0.099421 -0.120772 -0.041116 -0.143841 -0.311074 -0.182020 0.128530 -0.180372 0.122532 -0.104687 -0.066292 -0.350372 0.121749 0.058936 -0.176283 0.053947 0.195893 0.236962 -0.090144 0.266971 0.321186 0.008871 -0.156675 -0.034411 0.351029 -0.305396 0.234215 -0.127980 0.010981 -0.195658 0.036372 -0.011699 0.138092 0.152397 0.210983 0.074290 -0.102157 0.242633 0.076794 -0.093043 0.127735 0.094062 -0.183041 0.214982 -0.030591 -0.080581 -0.001944 0.277158 0.205427 0.097428 0.025153 -0.002617 0.244631 -0.402423 0.110122 -0.223860 -0.026342 -0.035762 -0.109949 0.077056 -0.099784 0.366682 0.129158 0.044303 0.012845 -0.051475 0.158284 0.163185 -0.088079 -0.065546 0.021531 0.237328 0.018675 0.008863 -0.009085 0.159379 -0.024571 -0.076570 -0.124975 0.008420 -0.038195 -0.142178 0.160130 -0.271213 0.242871 0.140281 0.191412 0.019440 -0.059844 -0.370376 0.097327
9239009 0.158649 -0.075900 0.177943 0.047992 0.047834 -0.177759 0.008182 -0.045032 0.157871 -0.215573 -0.099072 0.132015 0.159436 -0.423696 -0.068826 -0.022688 -0.124362 0.284125 -0.078773 -0.099546 0.131233 0.111986 0.022629 -0.210766 0.094925 -0.030185 0.278505 0.126093 0.054659 0.195238 -0.028838 0.056057 -0.073716 0.059946 -0.096472 -0.256209 0.224073 0.105738 -0.015105 -0.074514 -0.214946 -0.224622 -0.198190 0.203722 -0.097284 0.077939 -0.048247 -0.062138 -0.320495 -0.013653 -0.016615 -0.181705 0.077021 0.225797 0.076515 -0.087861 0.223988 0.151351 0.014539 -0.208365 -0.010841 0.346047 -0.179101 0.203149 -0.060103 -0.034224 -0.179771 0.074240 -0.015143 0.080927 0.067938 0.142294 0.123561 -0.143648 0.274115 -0.020398 -0.014965 0.110677 0.048578 -0.197581 0.198046 -0.012083 -0.093754 -0.112291 0.207227 0.154822 0.078265 -0.016510 -0.070179 0.169544 -0.252249 0.158751 -0.148144 -0.077322 -0.009526 -0.112449 0.047110 -0.108826 0.215731 0.190581 0.036206 -0.041597 -0.063401 -0.008966 0.117078 -0.052237 -0.049067 0.051972 0.106915 -0.028324 -0.053490 0.013647 0.076961 -0.074912 -0.049724 -0.070481 -0.012114 -0.027248 -0.101051 0.010464 -0.155577 0.183796 0.058781 0.178018 0.060524 -0.047337 -0.248811 0.040813
9239095 0.129909 -0.056519 0.169573 0.087780 0.103557 -0.206856 0.058003 -0.042573 0.103441 -0.066605 -0.126435 0.109141 0.055558 -0.433937 -0.167064 0.057752 -0.064248 0.208403 -0.053927 -0.093904 0.188879 0.040629 0.077069 -0.190323 0.015841 0.040853 0.359323 0.166458 -0.040919 0.246929 -0.045444 0.083962 0.089519 0.071360 -0.093257 -0.211674 0.289004 0.054525 -0.018379 -0.098275 -0.198690 -0.219789 -0.136563 0.108273 -0.011407 -0.005852 -0.099487 -0.129829 -0.352483 0.042281 0.083146 -0.178488 0.022962 0.184759 0.210617 -0.084239 0.276948 0.240981 0.051513 -0.090757 0.016075 0.253240 -0.137554 0.171621 -0.100704 0.028801 -0.169255 0.085875 -0.070110 0.139418 0.064812 0.208320 0.075141 -0.049160 0.306796 -0.069598 -0.060918 -0.035154 0.094773 -0.120854 0.148115 -0.093885 -0.080208 -0.001995 0.214628 0.186722 0.050873 0.036817 -0.143341 0.141793 -0.305088 0.071559 -0.113137 -0.076242 -0.084457 -0.114419 0.017998 -0.113584 0.179849 0.255266 0.032917 0.072294 0.028401 0.043557 0.081947 -0.032647 -0.041968 0.097062 0.076353 0.006377 -0.014514 -0.104251 0.107864 -0.116136 -0.017268 -0.096745 0.097015 -0.038137 -0.011683 0.049068 -0.241991 0.172209 0.098284 0.194034 0.100165 -0.084802 -0.189013 -0.032519
9240087 0.049516 -0.024312 0.119464 0.088760 0.145192 -0.178505 0.100014 0.002406 0.041812 0.154298 -0.156174 0.108475 -0.091467 -0.348605 -0.286761 0.169879 -0.022734 0.089372 -0.019484 -0.097159 0.211534 -0.032147 0.161647 -0.154294 -0.072849 0.141769 0.385540 0.178141 -0.165380 0.276460 -0.045137 0.142361 0.251694 0.078697 -0.115297 -0.107284 0.292662 -0.021401 -0.021055 -0.101593 -0.140514 -0.191001 -0.031294 -0.057605 0.067154 -0.089751 -0.161417 -0.140948 -0.331820 0.072921 0.196987 -0.138762 -0.022657 0.084978 0.369860 -0.090622 0.317007 0.289515 0.049251 0.099134 0.079144 0.069425 -0.060149 0.105696 -0.149335 0.081934 -0.103342 0.094257 -0.110566 0.181760 0.039226 0.241871 -0.065943 0.052998 0.275653 -0.124786 -0.121889 -0.260852 0.193321 -0.011987 0.075814 -0.167387 -0.049791 0.111521 0.209692 0.209799 0.007631 0.103126 -0.206772 0.038881 -0.335409 -0.109318 -0.035481 -0.008463 -0.140415 -0.127876 -0.017280 -0.106461 0.084708 0.256892 -0.034424 0.181996 0.121841 0.096179 0.023073 0.004328 0.011000 0.141528 -0.034213 0.000160 -0.008657 -0.206085 0.083629 -0.128527 0.010149 -0.151941 0.260079 -0.081211 0.112366 0.064735 -0.292406 0.111470 0.098788 0.137030 0.163044 -0.163882 -0.067452 -0.178151
